<?xml version="1.0"?>
<opencv_storage>
<stage6>
  <maxWeakCount>6</maxWeakCount>
  <stageThreshold>-6.4824432134628296e-01</stageThreshold>
  <weakClassifiers>
    <_>
      <internalNodes>
        0 -1 74905 4.3860217556357384e-04</internalNodes>
      <leafValues>
        -3.9904987812042236e-01 6.6523140668869019e-01</leafValues></_>
    <_>
      <internalNodes>
        0 -1 60444 -7.2031214833259583e-02</internalNodes>
      <leafValues>
        7.1148622035980225e-01 -3.2115823030471802e-01</leafValues></_>
    <_>
      <internalNodes>
        0 -1 25106 6.5707312896847725e-03</internalNodes>
      <leafValues>
        2.8987979888916016e-01 -8.8745838403701782e-01</leafValues></_>
    <_>
      <internalNodes>
        0 -1 52379 1.2856573448516428e-04</internalNodes>
      <leafValues>
        -7.1223723888397217e-01 2.6571413874626160e-01</leafValues></_>
    <_>
      <internalNodes>
        0 -1 24902 -1.4177155494689941e-01</internalNodes>
      <leafValues>
        -9.4551825523376465e-01 2.0041128993034363e-01</leafValues></_>
    <_>
      <internalNodes>
        0 -1 46300 2.5261286646127701e-02</internalNodes>
      <leafValues>
        -5.7098454236984253e-01 3.6471286416053772e-01</leafValues></_></weakClassifiers></stage6>
</opencv_storage>
