<?xml version="1.0"?>
<opencv_storage>
<stage5>
  <maxWeakCount>6</maxWeakCount>
  <stageThreshold>-1.3073951005935669e+00</stageThreshold>
  <weakClassifiers>
    <_>
      <internalNodes>
        0 -1 56910 -7.4048177339136600e-04</internalNodes>
      <leafValues>
        6.2251335382461548e-01 -5.9937399625778198e-01</leafValues></_>
    <_>
      <internalNodes>
        0 -1 43661 5.1894348114728928e-02</internalNodes>
      <leafValues>
        -8.2619196176528931e-01 4.1778466105461121e-01</leafValues></_>
    <_>
      <internalNodes>
        0 -1 56688 -3.3280596835538745e-04</internalNodes>
      <leafValues>
        2.5322043895721436e-01 -9.3609321117401123e-01</leafValues></_>
    <_>
      <internalNodes>
        0 -1 26143 -5.5034458637237549e-04</internalNodes>
      <leafValues>
        2.1184341609477997e-01 -8.7443202733993530e-01</leafValues></_>
    <_>
      <internalNodes>
        0 -1 39067 2.3557481472380459e-04</internalNodes>
      <leafValues>
        -7.3877841234207153e-01 2.8266942501068115e-01</leafValues></_>
    <_>
      <internalNodes>
        0 -1 11968 7.0136569440364838e-02</internalNodes>
      <leafValues>
        -7.8726351261138916e-01 2.6482251286506653e-01</leafValues></_></weakClassifiers></stage5>
</opencv_storage>
